<NeuralNetwork>
    <Inputs>
        <InputsNumber>12</InputsNumber>
        <Item Index="1">
            <Name>position.x</Name>
            <Units></Units>
            <Description></Description>
        </Item>
        <Item Index="2">
            <Name>position.y</Name>
            <Units></Units>
            <Description></Description>
        </Item>
        <Item Index="3">
            <Name>position.z</Name>
            <Units></Units>
            <Description></Description>
        </Item>
        <Item Index="4">
            <Name>view.x</Name>
            <Units></Units>
            <Description></Description>
        </Item>
        <Item Index="5">
            <Name>view.y</Name>
            <Units></Units>
            <Description></Description>
        </Item>
        <Item Index="6">
            <Name>view.z</Name>
            <Units></Units>
            <Description></Description>
        </Item>
        <Item Index="7">
            <Name>source.x</Name>
            <Units></Units>
            <Description></Description>
        </Item>
        <Item Index="8">
            <Name>source.y</Name>
            <Units></Units>
            <Description></Description>
        </Item>
        <Item Index="9">
            <Name>source.z</Name>
            <Units></Units>
            <Description></Description>
        </Item>
        <Item Index="10">
            <Name>normal.x</Name>
            <Units></Units>
            <Description></Description>
        </Item>
        <Item Index="11">
            <Name>normal.y</Name>
            <Units></Units>
            <Description></Description>
        </Item>
        <Item Index="12">
            <Name>normal.z</Name>
            <Units></Units>
            <Description></Description>
        </Item>
    </Inputs>
    <ScalingLayer>
        <ScalingNeuronsNumber>12</ScalingNeuronsNumber>
        <Statistics Index="1">
            <Minimum>-9.90899</Minimum>
            <Maximum>7.00765</Maximum>
            <Mean>-1.09871</Mean>
            <StandardDeviation>5.01011</StandardDeviation>
        </Statistics>
        <Statistics Index="2">
            <Minimum>0</Minimum>
            <Maximum>0</Maximum>
            <Mean>0</Mean>
            <StandardDeviation>0</StandardDeviation>
        </Statistics>
        <Statistics Index="3">
            <Minimum>-8.96987</Minimum>
            <Maximum>7.15404</Maximum>
            <Mean>-1.37733</Mean>
            <StandardDeviation>4.98337</StandardDeviation>
        </Statistics>
        <Statistics Index="4">
            <Minimum>0.095351</Minimum>
            <Maximum>0.095351</Maximum>
            <Mean>0.095351</Mean>
            <StandardDeviation>0</StandardDeviation>
        </Statistics>
        <Statistics Index="5">
            <Minimum>-13.1591</Minimum>
            <Maximum>-13.1591</Maximum>
            <Mean>-13.1591</Mean>
            <StandardDeviation>0</StandardDeviation>
        </Statistics>
        <Statistics Index="6">
            <Minimum>-5.27987</Minimum>
            <Maximum>-5.27987</Maximum>
            <Mean>-5.27987</Mean>
            <StandardDeviation>0</StandardDeviation>
        </Statistics>
        <Statistics Index="7">
            <Minimum>7.24872</Minimum>
            <Maximum>7.24872</Maximum>
            <Mean>7.24872</Mean>
            <StandardDeviation>0</StandardDeviation>
        </Statistics>
        <Statistics Index="8">
            <Minimum>0.541335</Minimum>
            <Maximum>0.541335</Maximum>
            <Mean>0.541335</Mean>
            <StandardDeviation>0</StandardDeviation>
        </Statistics>
        <Statistics Index="9">
            <Minimum>-5.45876</Minimum>
            <Maximum>-5.45876</Maximum>
            <Mean>-5.45876</Mean>
            <StandardDeviation>0</StandardDeviation>
        </Statistics>
        <Statistics Index="10">
            <Minimum>0</Minimum>
            <Maximum>0</Maximum>
            <Mean>0</Mean>
            <StandardDeviation>0</StandardDeviation>
        </Statistics>
        <Statistics Index="11">
            <Minimum>-1</Minimum>
            <Maximum>1</Maximum>
            <Mean>0.692308</Mean>
            <StandardDeviation>0.630425</StandardDeviation>
        </Statistics>
        <Statistics Index="12">
            <Minimum>0</Minimum>
            <Maximum>0</Maximum>
            <Mean>0</Mean>
            <StandardDeviation>0</StandardDeviation>
        </Statistics>
        <ScalingMethod>MinimumMaximum</ScalingMethod>
    </ScalingLayer>
    <MultilayerPerceptron>
        <Architecture>12 20 10 3</Architecture>
        <LayersActivationFunction>HyperbolicTangent HyperbolicTangent Linear</LayersActivationFunction>
        <Parameters>-1.72081 -0.0443191 -1.12181 0.190393 0.495012 3.49709 1.72339 -0.732908 -2.74905 -0.906193 0.416373 -5.65245 0.0969984 1.37785 0.581353 0.981265 -0.744864 0.350872 -5.868 -6.19781 2.42829 7.99665 2.32435 -0.97947 9.88628 -1.08406 -0.889801 -0.0457055 -0.774737 0.805189 -0.695555 2.49525 6.28083 -4.27941 -5.47086 -1.92056 -1.7863 -8.64811 0.272407 -2.7106 -1.38824 1.32902 -15.7269 -9.12567 -1.61119 -4.36132 2.62815 -6.68001 1.9847 0.26406 -1.99884 -0.469684 -0.0878728 0.71102 1.71669 -0.0482789 1.50688 4.65045 0.920512 2.80967 -3.05412 2.48982 0.267289 3.88568 -0.348158 0.196596 -0.792904 -0.273524 0.337998 0.247531 4.14782 -0.899665 -0.567331 -2.71904 -0.297474 -0.883475 -4.43077 1.05073 -0.259002 0.997541 -1.01748 -0.185996 -1.35093 3.79574 -3.05454 3.8699 -2.95657 -9.32224 -0.685155 -3.88758 0.00116031 0.615856 -0.191735 1.0245 -0.325363 1.75974 4.55789 -0.81765 0.0263495 -0.804849 -1.1014 0.640091 -5.11124 1.58489 0.196657 0.0165772 -0.137716 -0.020017 -1.72286 -3.73892 0.908513 -0.473638 2.47219 -1.10804 0.521047 -5.31186 -0.782461 0.155668 1.59698 0.81291 1.34601 0.0277912 -1.5804 0.280397 -4.00932 4.74203 1.3375 -0.340253 4.78018 0.0839285 -1.10712 0.00385427 0.607129 0.0191279 4.03622 2.23254 -1.84836 11.4977 -18.2037 14.1002 1.05297 6.12094 -0.135175 0.646783 -0.185806 1.20939 -0.221198 0.674417 -2.77174 -0.41711 0.27499 3.19829 0.126419 0.0454815 3.98902 -1.56748 -0.494117 -0.155821 0.8369 0.478256 2.09146 -4.73286 8.06068 4.09541 -11.364 1.04297 0.271298 4.3767 -0.32197 -1.723 -0.0214785 -0.248516 -0.145998 0.518585 14.1475 -0.431946 -9.80866 -5.11241 6.23214 0.583363 -7.56674 -1.26746 0.362411 -0.123814 -1.31958 0.0789169 -0.751798 -3.94773 1.29842 6.45409 2.78705 2.29993 2.28581 -7.38795 1.71503 1.47039 0.049383 -1.0801 0.0122668 4.97272 -2.08147 2.38157 -7.68111 -0.475247 1.68536 -0.417394 7.98599 0.114229 -0.703066 0.00792743 2.13832 0.13089 0.5655 1.4496 -5.56755 -3.24515 -3.33781 -1.2253 1.15822 -6.67515 -0.127381 -0.710903 -0.0468279 -1.39743 -0.0338439 2.82793 0.125735 -4.63506 -2.41407 0.524898 0.628934 0.808287 -6.71365 -0.983022 -3.05862 -0.505861 -0.696549 0.115322 1.68832 2.2463 3.55905 -10.3678 -14.0002 -16.4593 -0.641995 -5.35589 -1.08535 0.136988 -0.0312424 0.652846 -0.0621716 -3.78075 -2.77861 -0.359834 3.86793 4.58092 -1.77227 0.695653 -5.41265 -1.48997 -0.964416 9.96715 0.131356 2.54497 1.94923 0.957009 0.632361 5.103 2.49154 -3.30804 0.562701 -0.25532 0.16489 1.74272 -1.38874 1.50022 1.29738 1.50381 -0.995606 -1.56394 -3.00185 -2.37024 2.24104 2.17514 1.0977 5.54523 3.58865 3.60149 4.40389 2.32297 -4.28704 -0.977395 -3.06952 -0.942135 -0.0354504 5.71945 -1.43943 -1.86534 3.70374 0.0986697 -0.717997 0.663734 2.45828 -4.78824 1.79495 0.50628 0.699161 -1.84582 -1.25646 -3.93459 1.42327 1.14522 -0.211379 0.445145 0.960227 -2.46239 -5.11237 -0.360617 -2.95109 -1.11183 -0.69634 -0.740526 4.49118 1.45369 -2.56005 0.027664 0.546475 -1.66581 -0.910144 -6.05664 0.0170791 -1.85157 -1.75119 1.41215 -0.04663 1.61565 -0.0751242 2.12531 0.0841552 0.251446 -1.37876 -0.713293 0.383753 1.31787 -1.58449 0.846076 -0.43128 4.27677 -1.82157 1.65698 1.30931 -4.76875 4.57718 -1.95454 -2.12719 1.46627 1.32179 -3.50231 4.02545 -3.30223 3.99187 6.32629 14.7022 0.673164 1.72767 -4.43752 2.87554 1.72013 0.390723 2.08529 3.99809 2.57136 -2.27859 2.44324 0.97333 -2.74662 1.46429 -3.87801 -1.46667 0.198117 -2.50888 3.48784 1.90168 -1.61066 -0.8987 0.754913 -1.20129 2.60919 1.06859 6.26691 -0.297558 0.218484 3.33697 3.95513 1.97701 -2.69298 -1.94558 -2.6181 -2.56086 1.9981 6.03124 3.08305 -5.5963 5.36979 -4.26039 -1.21966 3.86514 4.25131 -3.84298 0.336558 -1.10357 1.63298 0.586567 -1.63318 -2.86704 -0.2811 3.1813 1.24444 -3.51953 3.53356 -2.71574 -2.38171 1.71657 -1.08093 -1.74707 0.622121 -2.33517 2.87583 -1.35366 -1.49781 4.09685 -0.730914 -1.19871 2.9438 3.29001 -0.901198 2.83958 -2.95483 -3.71051 -0.857617 -3.67069 1.17239 -0.00957258 -3.57324 2.11107 -3.47929 -3.32072 1.67005 -3.2148 2.12853 -2.33211 -1.78158 -1.6008 -0.406368 -1.99746 -4.00539 1.48747 0.00546709 3.23041 2.85065 0.285388 2.87063 -0.764549 -0.282389 2.47556 0.54517 -2.0184 1.16367 0.855422 0.445229 0.570961 -0.021028 -0.06985 0.400819 -0.373782 -0.0518405 1.53759 -0.0350764 0.864724 1.33438 0.431727 0.576886 -0.020917 -0.0698839 0.405978 -0.367642 -0.0518405 1.52597 -0.0350671 0.850777 1.3351 0.417641 0.570786 -0.0221624 -0.0685026 0.368497 -0.377721 -0.0518405 1.52035 -0.0351475 0.8922 1.32934 0.418549</Parameters>
    </MultilayerPerceptron>
    <UnscalingLayer>
        <UnscalingNeuronsNumber>3</UnscalingNeuronsNumber>
        <Statistics Index="1">
            <Minimum>0</Minimum>
            <Maximum>1</Maximum>
            <Mean>0.0769231</Mean>
            <StandardDeviation>0.27735</StandardDeviation>
        </Statistics>
        <Statistics Index="2">
            <Minimum>0</Minimum>
            <Maximum>1</Maximum>
            <Mean>0.0769231</Mean>
            <StandardDeviation>0.27735</StandardDeviation>
        </Statistics>
        <Statistics Index="3">
            <Minimum>0</Minimum>
            <Maximum>1</Maximum>
            <Mean>0.0769231</Mean>
            <StandardDeviation>0.27735</StandardDeviation>
        </Statistics>
        <UnscalingMethod>MinimumMaximum</UnscalingMethod>
    </UnscalingLayer>
    <Outputs>
        <OutputsNumber>3</OutputsNumber>
        <Item Index="1">
            <Name>R</Name>
            <Units></Units>
            <Description></Description>
        </Item>
        <Item Index="2">
            <Name>G</Name>
            <Units></Units>
            <Description></Description>
        </Item>
        <Item Index="3">
            <Name>B</Name>
            <Units></Units>
            <Description></Description>
        </Item>
    </Outputs>
</NeuralNetwork>
