<NeuralNetwork>
    <Inputs>
        <InputsNumber>12</InputsNumber>
        <Item Index="1">
            <Name>position.x</Name>
            <Units></Units>
            <Description></Description>
        </Item>
        <Item Index="2">
            <Name>position.y</Name>
            <Units></Units>
            <Description></Description>
        </Item>
        <Item Index="3">
            <Name>position.z</Name>
            <Units></Units>
            <Description></Description>
        </Item>
        <Item Index="4">
            <Name>view.x</Name>
            <Units></Units>
            <Description></Description>
        </Item>
        <Item Index="5">
            <Name>view.y</Name>
            <Units></Units>
            <Description></Description>
        </Item>
        <Item Index="6">
            <Name>view.z</Name>
            <Units></Units>
            <Description></Description>
        </Item>
        <Item Index="7">
            <Name>source.x</Name>
            <Units></Units>
            <Description></Description>
        </Item>
        <Item Index="8">
            <Name>source.y</Name>
            <Units></Units>
            <Description></Description>
        </Item>
        <Item Index="9">
            <Name>source.z</Name>
            <Units></Units>
            <Description></Description>
        </Item>
        <Item Index="10">
            <Name>normal.x</Name>
            <Units></Units>
            <Description></Description>
        </Item>
        <Item Index="11">
            <Name>normal.y</Name>
            <Units></Units>
            <Description></Description>
        </Item>
        <Item Index="12">
            <Name>normal.z</Name>
            <Units></Units>
            <Description></Description>
        </Item>
    </Inputs>
    <ScalingLayer>
        <ScalingNeuronsNumber>12</ScalingNeuronsNumber>
        <Statistics Index="1">
            <Minimum>-10</Minimum>
            <Maximum>10</Maximum>
            <Mean>0</Mean>
            <StandardDeviation>1</StandardDeviation>
        </Statistics>
        <Statistics Index="2">
            <Minimum>0</Minimum>
            <Maximum>20</Maximum>
            <Mean>0</Mean>
            <StandardDeviation>1</StandardDeviation>
        </Statistics>
        <Statistics Index="3">
            <Minimum>-10</Minimum>
            <Maximum>10</Maximum>
            <Mean>0</Mean>
            <StandardDeviation>1</StandardDeviation>
        </Statistics>
        <Statistics Index="4">
            <Minimum>-10</Minimum>
            <Maximum>10</Maximum>
            <Mean>0</Mean>
            <StandardDeviation>1</StandardDeviation>
        </Statistics>
        <Statistics Index="5">
            <Minimum>0</Minimum>
            <Maximum>20</Maximum>
            <Mean>0</Mean>
            <StandardDeviation>1</StandardDeviation>
        </Statistics>
        <Statistics Index="6">
            <Minimum>-10</Minimum>
            <Maximum>10</Maximum>
            <Mean>0</Mean>
            <StandardDeviation>1</StandardDeviation>
        </Statistics>
        <Statistics Index="7">
            <Minimum>-10</Minimum>
            <Maximum>10</Maximum>
            <Mean>0</Mean>
            <StandardDeviation>1</StandardDeviation>
        </Statistics>
        <Statistics Index="8">
            <Minimum>0</Minimum>
            <Maximum>20</Maximum>
            <Mean>0</Mean>
            <StandardDeviation>1</StandardDeviation>
        </Statistics>
        <Statistics Index="9">
            <Minimum>-10</Minimum>
            <Maximum>10</Maximum>
            <Mean>0</Mean>
            <StandardDeviation>1</StandardDeviation>
        </Statistics>
        <Statistics Index="10">
            <Minimum>-1</Minimum>
            <Maximum>1</Maximum>
            <Mean>0</Mean>
            <StandardDeviation>1</StandardDeviation>
        </Statistics>
        <Statistics Index="11">
            <Minimum>-1</Minimum>
            <Maximum>1</Maximum>
            <Mean>0</Mean>
            <StandardDeviation>1</StandardDeviation>
        </Statistics>
        <Statistics Index="12">
            <Minimum>-1</Minimum>
            <Maximum>1</Maximum>
            <Mean>0</Mean>
            <StandardDeviation>1</StandardDeviation>
        </Statistics>
        <ScalingMethod>NoScaling</ScalingMethod>
    </ScalingLayer>
    <MultilayerPerceptron>
        <Architecture>12 20 10 3</Architecture>
        <LayersActivationFunction>HyperbolicTangent HyperbolicTangent Linear</LayersActivationFunction>
        <Parameters>-0.582777 -0.600989 -1.40625 2.40284 4.69542 5.02853 -1.10322 -1.2124 1.61865 -2.47264 0.113872 -0.529994 -1.26628 -1.21343 2.02993 8.21191 23.9427 -6.40076 -11.9267 -5.16014 10.1405 -8.36091 0.669401 -3.81115 1.0048 -2.93864 0.89066 6.0934 -5.01364 -7.79074 -0.109764 2.18569 2.30716 1.98241 3.88232 -0.258108 -5.93485 -10.6989 7.18075 -0.804551 -1.47225 -3.99233 3.74147 5.36816 7.57336 -1.97676 -4.41817 3.65682 0.530589 3.36224 -4.89646 1.19674 0.867045 1.04479 1.9685 0.981448 -0.152244 3.74909 -3.6846 -1.61084 1.55455 -3.44016 -0.383953 -1.53182 -0.00940093 0.99725 1.96918 -0.860037 -0.200238 1.56937 2.28197 -0.303371 -0.285769 -0.0728936 0.261833 -0.137608 -0.44955 1.613 0.780832 -3.95209 -0.17676 17.6217 3.12435 3.05797 2.81417 -0.845704 7.01353 1.07252 1.69255 6.00946 -3.84009 1.17018 2.03395 13.249 -16.6508 1.88381 2.51103 -0.0933218 -2.39105 4.82367 1.08257 -1.9477 14.4235 -8.26231 0.175458 -6.38011 1.71736 -0.107283 1.06564 0.984512 -1.56167 -1.08942 3.26072 -1.56288 14.6269 1.52613 -5.93795 0.263398 -3.71571 -3.3252 7.74788 3.79708 -1.26099 4.90764 3.45141 6.32437 5.60921 1.93251 6.36649 -1.38661 0.848122 1.932 -0.9768 0.799461 -1.20513 -1.01894 0.111423 -2.16648 -1.57717 -0.49051 2.57502 5.1465 -3.31739 0.325709 -0.165416 5.94648 -14.8878 3.94226 -4.74372 -2.86169 -4.60286 -0.298042 -0.819578 10.2814 6.50623 -2.38864 0.0279115 6.14239 -8.48456 9.74213 -1.12089 1.00439 0.867102 -0.254717 1.63885 -1.11822 2.38929 -15.5966 -3.30852 0.229802 0.401966 -0.548456 -0.502745 1.78158 2.97349 -0.314448 -3.64852 3.57244 -1.37303 0.584076 -0.390175 -1.26018 -0.174885 0.963324 -6.92227 0.358839 -0.67444 -1.60769 2.30079 2.05503 0.0789512 -1.24447 6.83216 0.696195 2.29731 1.41763 3.21592 -1.29411 3.06263 1.24387 2.15773 0.68267 -1.20383 2.19816 -0.112889 -0.945688 1.32789 -0.244064 -0.214504 -1.82454 3.30511 5.17425 0.968818 2.54214 -3.07501 -6.60797 -0.735032 -2.29313 2.39288 -9.10172 0.0338571 -1.40616 -0.432164 -1.03879 1.15434 -1.4404 -1.9839 -1.81004 1.0646 -2.43979 0.74688 0.618515 -0.949071 -1.04779 0.0642431 -2.33224 1.89108 6.0054 0.898281 1.4307 -2.2376 -3.01457 1.09229 0.371331 -1.76846 2.34341 -4.60248 -0.847016 1.12183 0.617747 0.703669 1.71072 -2.64638 -2.90308 -0.358756 -5.27385 2.82123 0.349301 -1.59442 -1.36209 3.71126 -0.797583 -8.971 -0.19482 -0.20289 3.73848 2.67985 6.37246 10.4194 -1.27851 -1.11498 -1.73673 2.83377 11.1079 2.94571 -1.02249 3.59752 -0.159635 0.31512 1.9736 1.26276 5.1025 1.91033 -5.17022 -10.7946 5.72474 5.65877 4.8048 -4.97504 6.6955 12.9159 1.61385 -3.02484 -2.45845 -17.2109 4.12826 -4.84151 -2.41664 9.09978 -2.11386 6.40162 -2.8359 0.439005 3.20884 2.20252 -0.191797 1.19779 1.41681 2.34959 0.622416 -0.116053 3.02457 -1.45968 2.57723 -1.74639 0.354797 0.527853 -1.51706 1.10644 -0.904962 -2.7862 2.22737 -0.767317 -1.56036 -2.14996 6.80994 8.33522 0.754778 -0.82611 -5.42855 3.28522 8.70791 0.602463 1.32719 8.36219 3.39598 27.7396 -0.950726 2.3731 -3.81297 -5.05449 1.74304 -1.87665 0.742534 1.27504 2.00087 -2.08117 3.43507 2.59073 -3.32369 1.6457 1.95027 -3.5227 0.488608 3.9494 -4.64788 -2.46881 1.53938 1.69936 1.35424 1.86111 -1.22732 0.568245 -0.694156 -2.08418 -2.04198 -2.07792 7.19623 -0.274232 -0.926075 0.540263 -2.80916 -1.30869 -2.02587 -0.833886 1.65933 -0.516896 3.92583 -2.66812 -0.456428 0.0160008 -0.234102 -3.50519 2.9405 -1.91117 1.45962 -0.834799 -2.53368 0.334668 4.44111 0.141818 -4.88221 -1.98683 0.690193 -4.52837 -6.61499 2.51506 -3.23208 -2.64792 0.00448012 -0.948508 5.14587 -3.59935 -2.84054 -0.686749 -0.822591 -0.570282 -4.01343 -6.30216 -1.86495 -4.24223 -3.9119 -3.36352 -4.70432 -3.58344 -4.28612 -3.21581 1.01847 2.05917 2.67118 -2.82581 -4.22962 4.20517 -4.49362 -3.17441 5.05943 -6.01775 4.60713 1.33696 -8.28533 0.792896 6.28651 1.58113 0.688707 0.602249 -13.3211 -0.483612 -6.13273 -9.32217 -2.88736 -4.48466 -23.7339 0.471899 0.341478 1.4488 -0.570223 -0.445067 -0.79828 0.843995 0.398277 1.89479 0.197494 -1.19944 6.84837 0.936146 -0.13076 -3.95056 7.35597 -0.0703212 -0.0770935 -0.00891068 -0.133538 5.96421 -0.249855 0.150876 0.389325 -0.377412 -2.7694 3.8717 -0.785293 1.86101 -5.36431 0.413859 2.17624 -0.149217 0.49561 -2.15912 0.342934 6.01133 -0.0672755 4.12637 1.92474 -12.3754 0.409497 2.09443 -0.00198035 0.276529 1.51223 0.243764 -3.86372 0.385726 5.41918 4.10786 -5.25483 0.402834 2.11724 -0.119603 0.623477 2.04817 0.358119 4.21412 0.125119 4.22047</Parameters>
    </MultilayerPerceptron>
    <UnscalingLayer>
        <UnscalingNeuronsNumber>3</UnscalingNeuronsNumber>
        <Statistics Index="1">
            <Minimum>-1</Minimum>
            <Maximum>1.23646</Maximum>
            <Mean>0</Mean>
            <StandardDeviation>1</StandardDeviation>
        </Statistics>
        <Statistics Index="2">
            <Minimum>-1</Minimum>
            <Maximum>1</Maximum>
            <Mean>0</Mean>
            <StandardDeviation>1</StandardDeviation>
        </Statistics>
        <Statistics Index="3">
            <Minimum>-1</Minimum>
            <Maximum>1</Maximum>
            <Mean>0</Mean>
            <StandardDeviation>1</StandardDeviation>
        </Statistics>
        <UnscalingMethod>NoUnscaling</UnscalingMethod>
    </UnscalingLayer>
    <Outputs>
        <OutputsNumber>3</OutputsNumber>
        <Item Index="1">
            <Name>R</Name>
            <Units></Units>
            <Description></Description>
        </Item>
        <Item Index="2">
            <Name>G</Name>
            <Units></Units>
            <Description></Description>
        </Item>
        <Item Index="3">
            <Name>B</Name>
            <Units></Units>
            <Description></Description>
        </Item>
    </Outputs>
</NeuralNetwork>
