<NeuralNetwork>
    <Inputs>
        <InputsNumber>12</InputsNumber>
        <Item Index="1">
            <Name>position.x</Name>
            <Units></Units>
            <Description></Description>
        </Item>
        <Item Index="2">
            <Name>position.y</Name>
            <Units></Units>
            <Description></Description>
        </Item>
        <Item Index="3">
            <Name>position.z</Name>
            <Units></Units>
            <Description></Description>
        </Item>
        <Item Index="4">
            <Name>view.x</Name>
            <Units></Units>
            <Description></Description>
        </Item>
        <Item Index="5">
            <Name>view.y</Name>
            <Units></Units>
            <Description></Description>
        </Item>
        <Item Index="6">
            <Name>view.z</Name>
            <Units></Units>
            <Description></Description>
        </Item>
        <Item Index="7">
            <Name>source.x</Name>
            <Units></Units>
            <Description></Description>
        </Item>
        <Item Index="8">
            <Name>source.y</Name>
            <Units></Units>
            <Description></Description>
        </Item>
        <Item Index="9">
            <Name>source.z</Name>
            <Units></Units>
            <Description></Description>
        </Item>
        <Item Index="10">
            <Name>normal.x</Name>
            <Units></Units>
            <Description></Description>
        </Item>
        <Item Index="11">
            <Name>normal.y</Name>
            <Units></Units>
            <Description></Description>
        </Item>
        <Item Index="12">
            <Name>normal.z</Name>
            <Units></Units>
            <Description></Description>
        </Item>
    </Inputs>
    <ScalingLayer>
        <ScalingNeuronsNumber>0</ScalingNeuronsNumber>
        <ScalingMethod>NoScaling</ScalingMethod>
    </ScalingLayer>
    <MultilayerPerceptron>
        <Architecture>12 20 10 3</Architecture>
        <LayersActivationFunction>HyperbolicTangent HyperbolicTangent Linear</LayersActivationFunction>
        <Parameters>-2.30091 1.95342 -16.1657 17.1298 -4.56394 -1.37514 9.61582 4.89906 -1.6646 -4.36694 -15.6116 32.7722 40.0589 1.45554 16.671 -1.30447 31.318 0.551922 6.30655 -5.35856 -6.79864 8.80181 1.13735 21.9743 36.4628 -93.8017 0.798583 -24.9214 16.3499 -45.1669 -0.215784 0.498286 3.33601 -2.11548 8.17647 1.26704 -13.351 16.4243 -5.82141 -0.602872 4.21956 2.78111 -9.42112 0.0868311 1.32947 -7.68273 4.66977 14.0297 2.62253 0.451749 -0.312122 0.465058 -18.4337 387.229 409.652 358.908 -187.327 -130.378 -68.3358 119.044 -361.735 -179.608 -103.082 -46.4431 -41.8951 0.90213 149.898 -15.6623 14.4186 2.0213 1.64273 -1.15696 0.0359061 -1.89802 -0.275585 -2.135 -4.34488 2.77532 15.6593 59.3336 -413.586 -41.044 -19.8368 22.6416 -76.7923 137.659 208.032 -81.8733 45.0244 -42.7061 52.0109 -1.03812 -10.5426 2.37249 23.1896 -12.3467 4.58399 48.0878 22.9374 23.7157 -24.2695 1.75314 0.0262059 5.64926 6.78573 -20.5524 5.99099 48.3869 -6.75964 28.3699 57.3095 -39.9998 97.3396 -40.9348 -3.07965 7.08664 -0.822443 -3.52594 -240.894 -316.794 71.1053 0.727873 -19.7605 -24.546 16.0328 -47.9195 18.094 1.2936 78.9947 0.0809579 -0.998412 112.827 -49.8684 16.1638 -16.4021 -11.2854 -3.12789 -6.83056 -20.8345 -5.24319 94.6579 -206.653 -255.425 -0.309268 -1.70996 0.513248 12.6965 -3.67287 0.093425 18.8367 -14.8536 -8.41111 -2.96573 0.0192632 0.314306 -2.02407 -0.452991 16.8184 16.4933 44.83 -5.14105 2.17017 21.332 -0.16348 12.4911 -8.89804 -5.35004 2.54057 -4.58749 11.7082 33.7063 95.508 -117.461 31.525 17.6311 -88.8317 1.08847 188.082 69.5249 -0.0901733 -0.573844 11.582 -0.641411 19.35 -9.08057 39.393 -3.92304 -6.2032 3.68492 0.241266 -2.44385 -2.06973 2.7575 0.336667 1.38079 2.39654 -7.07172 -16.7399 4.52311 4.84649 6.07451 0.0848004 -12.6235 8.80063 -4.25505 -132.334 49.4906 25.8737 2.50118 128.801 81.7833 20.2629 -1.8214 -7.43766 -40.6291 51.6141 -9.34531 -20.4121 -19.523 -22.5896 26.8933 0.109479 21.4417 -46.0145 -0.242866 0.0371493 -1.94123 -11.9162 5.9341 1.04671 1.63249 1.7462 -13.8554 10.7832 -2.10575 -16.9285 2.59 -72.4017 6.75934 1.28763 -3.83094 -9.5897 -19.7411 8.52001 12.6227 -7.84788 -0.363543 -2.43603 39.74 -14.3463 4.00345 -5.49854 -7.45827 4.98786 10.6917 -12.0497 -3.88877 133.228 -131.957 -580.544 -47.6722 -35.046 368.759 -89.6734 -48.3116 6.96934 137.257 -220.414 -68.8886 -112.546 55.103 -210.148 -55.6564 -7.17392 -49.6058 92.4997 464.727 381.331 59.1399 7.01921 -375.982 -16.6566 -281.534 -43.5862 69.0838 -12.1353 -46.6195 -93.3463 -25.103 0.258772 80.5133 -36.3946 4.93442 -80.782 -38.3305 0.0303336 -61.1656 -5.53795 -32.9152 10.6018 85.8722 -52.4626 10.1715 -7.27415 -27.6847 -30.7475 12.7009 7.05104 -40.2634 -2.17255 -12.0807 -28.2416 135.599 2.52163 26.0358 1.21276 -230.591 -144.861 73.5254 -19.6775 -49.2694 100.956 -97.5621 41.0649 -49.2063 92.1934 -3.95489 40.5556 -76.8097 -9.40625 241.395 15.599 44.5685 -0.083364 -79.4326 10.8337 234.41 41.5523 -53.4169 37.0069 312.71 -39.0995 -153.944 -66.7265 -43.0428 -64.642 -299.067 -11.7866 19.683 -461.442 6.14822 524.021 -200.669 -193.016 -5.47619 8.94667 -30.527 -139.496 50.8694 -37.7333 -217.368 -297.475 15.4232 89.8774 291.345 -75.8945 69.0965 -121.387 -82.2496 -73.0729 101.995 58.4927 -65.3542 -26.4143 -44.8954 65.5454 26.5894 -35.1776 -33.1201 -78.8484 71.6663 105.908 -108.059 60.1953 7.77354 103.318 66.6456 -64.289 32.784 26.9828 33.2953 -21.3382 86.412 -50.1279 -12.0124 -21.1743 -71.7293 -56.9707 27.2836 -26.503 27.8675 -26.6488 -18.7575 26.5156 7.14842 12.5201 -37.3313 -16.3624 4.14514 -70.4923 -28.1683 -17.8111 31.5578 24.4215 -45.4669 4.18626 60.9998 18.9322 7.82726 -38.9977 -63.32 -12.3991 -18.257 -136.908 26.1722 44.7191 -12.5931 21.5029 -10.8065 -8.52896 -91.8295 -29.0582 -12.412 42.1437 15.4407 -54.7329 -12.7764 -3.64133 1.46124 10.3787 12.0737 17.5817 -12.4691 7.72414 -37.5126 -66.2237 11.9508 -8.48411 16.5533 -21.2347 22.3808 -18.3275 7.37159 -18.2564 8.49624 -11.9657 -210.084 -13.0196 8.21216 7.5794 19.1745 -9.32734 -17.4479 -19.6125 20.9934 14.3276 -181.139 16.8062 -15.2748 -3.0968 -0.00477517 -0.00527357 0.00224848 -0.0103634 -0.00992983 0.00694145 -0.0166822 -0.00565381 -0.00860131 0.011626 -0.0191072 0.00543427 -0.00243177 0.00124729 -0.0109136 -0.00638573 0.0080209 0.00412786 0.00496072 -0.00727757 0.0114227 -0.0174425 -0.00281944 -0.000981203 0.000356678 -0.00195698 -0.00180396 0.00137607 -0.0037065 -9.01186e-05 -0.00184557 0.002466 -0.00394156</Parameters>
    </MultilayerPerceptron>
    <UnscalingLayer>
        <UnscalingNeuronsNumber>0</UnscalingNeuronsNumber>
        <UnscalingMethod>NoUnscaling</UnscalingMethod>
    </UnscalingLayer>
    <Outputs>
        <OutputsNumber>3</OutputsNumber>
        <Item Index="1">
            <Name>R</Name>
            <Units></Units>
            <Description></Description>
        </Item>
        <Item Index="2">
            <Name>G</Name>
            <Units></Units>
            <Description></Description>
        </Item>
        <Item Index="3">
            <Name>B</Name>
            <Units></Units>
            <Description></Description>
        </Item>
    </Outputs>
</NeuralNetwork>
