<NeuralNetwork>
    <Inputs>
        <InputsNumber>12</InputsNumber>
        <Item Index="1">
            <Name>position.x</Name>
            <Units></Units>
            <Description></Description>
        </Item>
        <Item Index="2">
            <Name>position.y</Name>
            <Units></Units>
            <Description></Description>
        </Item>
        <Item Index="3">
            <Name>position.z</Name>
            <Units></Units>
            <Description></Description>
        </Item>
        <Item Index="4">
            <Name>view.x</Name>
            <Units></Units>
            <Description></Description>
        </Item>
        <Item Index="5">
            <Name>view.y</Name>
            <Units></Units>
            <Description></Description>
        </Item>
        <Item Index="6">
            <Name>view.z</Name>
            <Units></Units>
            <Description></Description>
        </Item>
        <Item Index="7">
            <Name>source.x</Name>
            <Units></Units>
            <Description></Description>
        </Item>
        <Item Index="8">
            <Name>source.y</Name>
            <Units></Units>
            <Description></Description>
        </Item>
        <Item Index="9">
            <Name>source.z</Name>
            <Units></Units>
            <Description></Description>
        </Item>
        <Item Index="10">
            <Name>normal.x</Name>
            <Units></Units>
            <Description></Description>
        </Item>
        <Item Index="11">
            <Name>normal.y</Name>
            <Units></Units>
            <Description></Description>
        </Item>
        <Item Index="12">
            <Name>normal.z</Name>
            <Units></Units>
            <Description></Description>
        </Item>
    </Inputs>
    <ScalingLayer>
        <ScalingNeuronsNumber>12</ScalingNeuronsNumber>
        <Statistics Index="1">
            <Minimum>-0.911949</Minimum>
            <Maximum>0.768833</Maximum>
            <Mean>-0.123537</Mean>
            <StandardDeviation>0.507878</StandardDeviation>
        </Statistics>
        <Statistics Index="2">
            <Minimum>-1.34427e-07</Minimum>
            <Maximum>1.59451e-07</Maximum>
            <Mean>9.47511e-09</Mean>
            <StandardDeviation>8.53311e-08</StandardDeviation>
        </Statistics>
        <Statistics Index="3">
            <Minimum>-0.860893</Minimum>
            <Maximum>0.890295</Maximum>
            <Mean>0.00983363</Mean>
            <StandardDeviation>0.522861</StandardDeviation>
        </Statistics>
        <Statistics Index="4">
            <Minimum>-0.490841</Minimum>
            <Maximum>-0.490841</Maximum>
            <Mean>-0.490841</Mean>
            <StandardDeviation>0</StandardDeviation>
        </Statistics>
        <Statistics Index="5">
            <Minimum>-1.35846</Minimum>
            <Maximum>-1.35846</Maximum>
            <Mean>-1.35846</Mean>
            <StandardDeviation>0</StandardDeviation>
        </Statistics>
        <Statistics Index="6">
            <Minimum>0.104542</Minimum>
            <Maximum>0.104542</Maximum>
            <Mean>0.104542</Mean>
            <StandardDeviation>0</StandardDeviation>
        </Statistics>
        <Statistics Index="7">
            <Minimum>0.289724</Minimum>
            <Maximum>0.289724</Maximum>
            <Mean>0.289724</Mean>
            <StandardDeviation>0</StandardDeviation>
        </Statistics>
        <Statistics Index="8">
            <Minimum>0.886954</Minimum>
            <Maximum>0.886954</Maximum>
            <Mean>0.886954</Mean>
            <StandardDeviation>0</StandardDeviation>
        </Statistics>
        <Statistics Index="9">
            <Minimum>0.64882</Minimum>
            <Maximum>0.64882</Maximum>
            <Mean>0.64882</Mean>
            <StandardDeviation>0</StandardDeviation>
        </Statistics>
        <Statistics Index="10">
            <Minimum>0</Minimum>
            <Maximum>1.74846e-07</Maximum>
            <Mean>1.2489e-07</Mean>
            <StandardDeviation>8.0938e-08</StandardDeviation>
        </Statistics>
        <Statistics Index="11">
            <Minimum>-1</Minimum>
            <Maximum>1</Maximum>
            <Mean>0.52381</Mean>
            <StandardDeviation>0.813575</StandardDeviation>
        </Statistics>
        <Statistics Index="12">
            <Minimum>0</Minimum>
            <Maximum>0</Maximum>
            <Mean>0</Mean>
            <StandardDeviation>0</StandardDeviation>
        </Statistics>
        <ScalingMethod>MinimumMaximum</ScalingMethod>
    </ScalingLayer>
    <MultilayerPerceptron>
        <Architecture>12 20 10 3</Architecture>
        <LayersActivationFunction>HyperbolicTangent HyperbolicTangent Linear</LayersActivationFunction>
        <Parameters>-1.29092 0.702144 -1.11484 2.09336 -1.16625 1.60072 1.08425 -0.768268 -0.48771 0.826795 0.391277 -2.03951 0.0969984 0.685141 -0.231742 0.823793 1.62727 -1.54451 0.182862 -0.672379 0.424306 -0.358312 1.2607 -0.7988 -0.408905 -1.08406 0.409956 1.13209 -0.733751 -0.946052 -1.91505 -1.12725 0.519044 0.720125 1.07672 1.19006 -1.74772 0.625843 0.272407 -1.61984 -1.80174 1.34616 -0.0684377 0.904989 0.435183 0.662172 -0.782786 0.329685 -0.134798 0.275291 -0.325779 -0.469684 1.001 -0.0848467 1.3778 1.39079 -0.742582 -0.777958 -1.0378 -0.315216 -0.688217 -0.4661 0.929145 0.839128 -0.348158 0.970108 0.962071 -0.273212 -0.787851 1.69687 2.02779 -0.304214 -0.111284 -0.605689 0.193245 -0.895297 0.115742 1.05073 -0.152954 -0.333145 -0.838137 -0.169469 -1.0455 1.1754 0.127343 1.37742 0.430812 0.292729 -0.894719 -1.00049 0.00116031 0.936849 0.0736982 0.98935 0.31133 0.813474 0.00427776 -1.23069 -0.32996 0.127441 0.719383 0.776494 -0.141711 1.58489 -0.0116498 -0.509024 -0.0623165 0.864057 -0.353594 -0.835667 -1.32592 -1.89067 0.517301 -1.91112 0.705756 -0.150691 -0.782461 -0.406785 0.306371 0.912597 2.51749 0.529586 -0.854643 1.0329 0.681137 0.380124 1.7718 -0.486604 -0.250425 0.0839285 0.777146 -0.0290589 0.598073 0.434079 -0.626573 -0.994188 -0.0230319 -1.6797 -1.56515 -0.154531 1.08745 1.95808 -0.135175 0.166825 -0.0927931 1.21403 0.518388 0.5334 -1.3107 -0.57237 -0.752804 1.28166 -0.445144 0.0960055 1.72805 -1.56748 -0.127893 0.282283 0.851111 0.180668 -1.58169 -0.191363 0.868979 0.180837 1.17361 -0.554647 0.262915 0.49645 -0.32197 0.0144807 0.165747 -0.259008 -0.247972 -1.29402 1.12213 0.803296 -0.0858512 3.22398 -0.707147 0.792666 -0.462898 -1.26746 -0.201406 0.633034 -1.32782 1.51625 -1.84514 -0.799518 1.23408 0.516493 0.973277 0.225063 2.2527 -0.123805 1.71503 1.32497 1.49186 -0.851675 0.411735 0.643695 -0.0882153 1.58942 -1.04497 0.113428 0.210861 0.0501504 1.71627 0.114229 -0.574724 0.923658 1.95173 1.26483 -0.50214 -0.452162 -0.312774 -0.419393 -0.529187 0.00574312 1.26528 -1.44346 -0.127381 -1.37364 0.649476 -1.29876 -0.435713 0.626054 0.343606 -1.0025 2.13369 -0.543772 -0.128346 0.480484 -0.0936337 -0.983022 0.197124 -1.9487 -0.939813 -1.88938 -0.243952 -0.459727 -0.830379 -0.215005 0.679888 0.846128 -0.286902 0.833663 -1.08535 -0.507217 1.51678 0.572855 0.896217 0.322093 -0.895967 -2.50703 -0.356262 -0.229029 -0.665652 0.880125 -1.42054 -1.48997 0.722954 0.76648 -0.486512 -0.331993 0.0728988 1.03347 -0.306019 1.07841 1.7591 -1.34509 1.51931 -1.06395 0.497943 0.846362 0.0900242 1.96318 1.0254 -0.0693269 0.541899 -0.0756657 -0.715798 1.09348 -0.204718 0.0694153 1.78953 0.717587 1.02311 0.318338 -0.467011 0.254559 -0.525519 0.178377 1.29822 0.550986 -1.15234 0.136844 0.27686 -0.466266 0.00929838 1.24729 -0.379458 0.786388 -0.905011 1.44188 -0.0318075 0.930688 0.546346 -0.595189 0.946783 1.52777 1.51976 -0.508975 0.39857 1.93503 -0.0484266 -0.979261 -0.826741 -0.0228691 -0.274052 -0.669908 -0.425872 0.453342 0.484227 0.0933846 -0.793033 1.04942 0.166584 0.198036 0.367398 -3.7749 -0.833243 -0.764454 -0.627674 0.187977 0.0222875 0.803857 0.380908 0.702934 -1.57598 0.261402 -0.202372 0.478082 -0.689551 0.200755 -0.393305 -0.0806074 0.323311 0.00942561 1.31267 -0.428599 0.519281 -0.858546 -0.91638 0.835486 0.516345 -2.38176 -0.271922 -1.42171 -0.605003 -0.779303 0.117337 -1.14834 2.13959 -1.77425 -0.414729 -0.453401 -1.16416 0.0332947 0.982547 1.69875 2.30016 -1.23948 -0.310789 0.456929 -0.458475 0.644612 -0.398734 -0.00221849 0.0500157 0.652747 -0.348249 1.40512 -0.972615 1.28317 -0.529317 0.261564 0.331196 -1.58473 -0.163798 -0.965834 1.78682 -2.4983 0.877275 1.45174 -0.885701 -1.65525 0.192349 -2.23044 1.32821 0.516529 0.249698 2.52156 -1.1051 -0.339604 0.447494 0.0706353 0.476008 0.561633 -1.17902 0.587579 -0.553919 -0.452217 1.10721 -0.267389 -1.44421 0.237847 1.97721 -0.492871 -0.853355 0.32881 0.134802 0.195672 0.757027 0.722915 0.638326 -0.668499 -1.70494 -0.322077 1.09277 -1.36005 0.840512 2.2279 0.716614 0.356478 0.237304 -1.53266 1.31416 -0.306718 -0.862253 1.13722 -0.42724 -0.753119 0.219448 0.700107 0.0648635 -1.22807 -0.205812 -0.426271 -0.181866 -0.476713 0.528233 -0.281124 -2.26458 1.27328 0.481845 -0.103731 0.68446 1.03995 0.341712 0.446579 -0.873599 -1.02965 1.04082 -1.06083 0.137732 0.135728 -0.777133 0.799197 -0.600554 1.09102 -2.02956 -0.260371 -0.2792 -1.16763 -0.179024 -0.410601 0.703715 0.232594 -0.153824 0.109529 0.252491 0.720493 -1.00911 0.097144 -0.590595 -1.58141 -1.08836 0.344268 0.61315 0.208499 -0.253093 0.588399 0.608954 -0.448744 -1.95652 -0.0337949 -0.633694 1.25708 0.777633 -1.21877 -0.0480977 0.618794 -0.0671114</Parameters>
    </MultilayerPerceptron>
    <UnscalingLayer>
        <UnscalingNeuronsNumber>3</UnscalingNeuronsNumber>
        <Statistics Index="1">
            <Minimum>0</Minimum>
            <Maximum>1</Maximum>
            <Mean>0.047619</Mean>
            <StandardDeviation>0.218218</StandardDeviation>
        </Statistics>
        <Statistics Index="2">
            <Minimum>0</Minimum>
            <Maximum>1</Maximum>
            <Mean>0.047619</Mean>
            <StandardDeviation>0.218218</StandardDeviation>
        </Statistics>
        <Statistics Index="3">
            <Minimum>0</Minimum>
            <Maximum>1</Maximum>
            <Mean>0.047619</Mean>
            <StandardDeviation>0.218218</StandardDeviation>
        </Statistics>
        <UnscalingMethod>MinimumMaximum</UnscalingMethod>
    </UnscalingLayer>
    <Outputs>
        <OutputsNumber>3</OutputsNumber>
        <Item Index="1">
            <Name>R</Name>
            <Units></Units>
            <Description></Description>
        </Item>
        <Item Index="2">
            <Name>G</Name>
            <Units></Units>
            <Description></Description>
        </Item>
        <Item Index="3">
            <Name>B</Name>
            <Units></Units>
            <Description></Description>
        </Item>
    </Outputs>
</NeuralNetwork>
