<NeuralNetwork>
    <Inputs>
        <InputsNumber>12</InputsNumber>
        <Item Index="1">
            <Name>position.x</Name>
            <Units></Units>
            <Description></Description>
        </Item>
        <Item Index="2">
            <Name>position.y</Name>
            <Units></Units>
            <Description></Description>
        </Item>
        <Item Index="3">
            <Name>position.z</Name>
            <Units></Units>
            <Description></Description>
        </Item>
        <Item Index="4">
            <Name>view.x</Name>
            <Units></Units>
            <Description></Description>
        </Item>
        <Item Index="5">
            <Name>view.y</Name>
            <Units></Units>
            <Description></Description>
        </Item>
        <Item Index="6">
            <Name>view.z</Name>
            <Units></Units>
            <Description></Description>
        </Item>
        <Item Index="7">
            <Name>source.x</Name>
            <Units></Units>
            <Description></Description>
        </Item>
        <Item Index="8">
            <Name>source.y</Name>
            <Units></Units>
            <Description></Description>
        </Item>
        <Item Index="9">
            <Name>source.z</Name>
            <Units></Units>
            <Description></Description>
        </Item>
        <Item Index="10">
            <Name>normal.x</Name>
            <Units></Units>
            <Description></Description>
        </Item>
        <Item Index="11">
            <Name>normal.y</Name>
            <Units></Units>
            <Description></Description>
        </Item>
        <Item Index="12">
            <Name>normal.z</Name>
            <Units></Units>
            <Description></Description>
        </Item>
    </Inputs>
    <ScalingLayer>
        <ScalingNeuronsNumber>12</ScalingNeuronsNumber>
        <Statistics Index="1">
            <Minimum>1</Minimum>
            <Maximum>200</Maximum>
            <Mean>100.5</Mean>
            <StandardDeviation>57.8792</StandardDeviation>
        </Statistics>
        <Statistics Index="2">
            <Minimum>1</Minimum>
            <Maximum>200</Maximum>
            <Mean>100.5</Mean>
            <StandardDeviation>57.8792</StandardDeviation>
        </Statistics>
        <Statistics Index="3">
            <Minimum>1</Minimum>
            <Maximum>200</Maximum>
            <Mean>100.5</Mean>
            <StandardDeviation>57.8792</StandardDeviation>
        </Statistics>
        <Statistics Index="4">
            <Minimum>1</Minimum>
            <Maximum>200</Maximum>
            <Mean>100.5</Mean>
            <StandardDeviation>57.8792</StandardDeviation>
        </Statistics>
        <Statistics Index="5">
            <Minimum>1</Minimum>
            <Maximum>200</Maximum>
            <Mean>100.5</Mean>
            <StandardDeviation>57.8792</StandardDeviation>
        </Statistics>
        <Statistics Index="6">
            <Minimum>1</Minimum>
            <Maximum>200</Maximum>
            <Mean>100.5</Mean>
            <StandardDeviation>57.8792</StandardDeviation>
        </Statistics>
        <Statistics Index="7">
            <Minimum>1</Minimum>
            <Maximum>200</Maximum>
            <Mean>100.5</Mean>
            <StandardDeviation>57.8792</StandardDeviation>
        </Statistics>
        <Statistics Index="8">
            <Minimum>1</Minimum>
            <Maximum>200</Maximum>
            <Mean>100.5</Mean>
            <StandardDeviation>57.8792</StandardDeviation>
        </Statistics>
        <Statistics Index="9">
            <Minimum>1</Minimum>
            <Maximum>200</Maximum>
            <Mean>100.5</Mean>
            <StandardDeviation>57.8792</StandardDeviation>
        </Statistics>
        <Statistics Index="10">
            <Minimum>1</Minimum>
            <Maximum>200</Maximum>
            <Mean>100.5</Mean>
            <StandardDeviation>57.8792</StandardDeviation>
        </Statistics>
        <Statistics Index="11">
            <Minimum>1</Minimum>
            <Maximum>200</Maximum>
            <Mean>100.5</Mean>
            <StandardDeviation>57.8792</StandardDeviation>
        </Statistics>
        <Statistics Index="12">
            <Minimum>1</Minimum>
            <Maximum>200</Maximum>
            <Mean>100.5</Mean>
            <StandardDeviation>57.8792</StandardDeviation>
        </Statistics>
        <ScalingMethod>MinimumMaximum</ScalingMethod>
    </ScalingLayer>
    <MultilayerPerceptron>
        <Architecture>12 20 10 3</Architecture>
        <LayersActivationFunction>HyperbolicTangent HyperbolicTangent Linear</LayersActivationFunction>
        <Parameters>-1.45599 0.671209 -1.1593 2.06988 -1.20217 1.56756 1.04643 -0.806676 -0.528022 0.787242 0.378888 -2.05183 0.0595133 0.402063 -0.333582 1.03671 1.5849 -1.39931 0.486705 -0.63605 0.426775 -0.465048 1.19751 -0.924025 -0.534998 -1.02861 0.650622 1.17059 -0.777219 -0.969558 -1.8986 -1.07733 0.51253 0.706466 1.04002 1.16255 -1.78878 0.584783 0.269926 -1.5663 -1.7887 1.317 -0.235589 0.906875 0.461644 0.647193 -0.80301 0.292545 -0.165193 0.252043 -0.349005 -0.481701 0.335359 -0.661544 1.491 0.931406 -0.771509 -0.459098 -1.30539 -0.657033 -1.26943 -0.951861 0.0416081 -0.0698266 -0.573839 0.850154 1.10886 -0.127922 -0.642414 1.84711 2.18622 -0.159599 0.0315828 -0.468462 0.332721 -0.737873 0.272231 1.19634 0.159954 0.0233438 -0.840332 0.305189 -0.9815 1.03941 0.328592 1.62136 0.812419 0.619442 -0.508005 -0.60039 0.178311 0.78243 0.087082 1.0516 0.449193 0.911097 0.226567 -1.21862 -0.344493 0.0270945 0.653252 0.667187 -0.241283 1.61198 -0.595691 -0.435679 -0.0946652 0.907728 -0.27172 -0.685167 -1.29114 -1.87054 0.490196 -1.91939 0.564097 -0.310471 -0.739411 -0.266825 0.412805 0.818784 2.40843 0.463134 -1.04894 1.05418 0.729702 0.516691 1.87328 -0.334379 -0.0982571 0.0898025 0.673327 0.0829814 0.728471 0.565878 -0.50574 -0.874257 0.0984192 -1.55806 -1.44288 -0.0325148 1.17431 2.06387 -0.0138328 0.303662 -0.132715 1.19959 0.514783 0.498633 -1.38961 -0.57685 -0.747865 1.31698 -0.421938 0.0356828 1.66664 -1.57728 0.296665 0.231766 0.759043 0.100213 -1.67457 -0.310788 0.794321 0.111845 1.1229 -0.612651 0.193441 0.434994 -0.399827 0.40728 0.0509998 -0.349897 -0.415565 -1.32692 1.21028 0.687329 -0.227653 2.99885 -0.899048 0.481982 -0.7667 -1.36884 0.220421 0.605681 -1.33087 1.51239 -1.84686 -0.784321 1.22075 0.49955 0.944688 0.201117 2.27451 -0.108964 1.70374 1.75591 1.53657 -1.25626 0.0600391 0.521642 -0.114637 1.40174 -1.25306 -0.160489 -0.0368092 -0.593549 1.0742 -0.0619263 -0.938956 0.598493 2.05352 1.19977 -0.56874 -0.486594 -0.401448 -0.514933 -0.64687 -0.10311 1.07342 -1.63701 -0.212179 -0.940276 0.716249 -1.42526 -0.520218 0.420519 -0.176043 -0.992482 2.21075 -0.250491 0.0787203 0.780456 0.204704 -1.01085 -0.0796512 -2.1592 -0.665989 -1.59426 -0.0464505 0.0328661 -0.835376 -0.282985 0.408781 0.656014 -0.611436 0.526783 -1.05479 -0.271016 1.38195 0.634756 0.766352 0.314502 -0.885001 -2.52736 -0.380548 -0.266089 -0.69762 0.677563 -1.62226 -1.50806 0.800455 0.694146 -0.447489 -0.295107 0.00185485 1.10072 -0.322733 1.04684 1.74566 -1.26065 1.42859 -1.03228 0.499889 0.865566 0.116583 1.88922 1.09475 -0.130419 0.489535 -0.00153448 -0.698758 0.620099 0.185269 0.268447 1.38417 1.19433 1.30683 0.570665 -0.360602 0.390554 -0.386772 -0.293446 0.78161 0.204148 -1.19635 -0.077235 -0.0593757 -1.14738 0.421599 0.980228 -0.0735885 0.746057 -1.1762 1.6638 -0.187591 0.740165 0.791762 -0.803607 1.14693 1.48067 1.70513 -0.828967 0.757301 1.74834 -0.0780233 -0.78587 -0.636395 0.287186 -0.175305 -0.452022 -0.217335 0.10139 0.246897 0.0477767 -0.74955 1.00712 0.111664 0.240012 0.319 -3.74347 -0.832667 -0.760437 -0.654615 0.236005 -0.0400455 0.784358 0.406658 0.698289 -1.52589 0.235482 -0.170443 0.516149 -0.732529 0.16948 -0.144845 -0.316493 -0.0580134 0.389882 1.05709 -0.691391 0.0566878 -1.04955 -1.07081 0.740872 0.512127 -1.98731 0.0728148 -1.13861 -0.307021 -0.538959 0.412514 -1.37065 2.52095 -1.52307 -0.561661 0.0436491 -1.62093 0.425496 1.36593 1.13439 2.50187 -1.38158 -0.0566236 0.0759302 -0.158362 0.133789 -0.18014 -0.070893 -0.358355 0.3816 -0.906366 1.39376 -1.50435 0.885805 -0.0401861 0.705995 0.595179 -1.83721 -0.133511 -0.780392 1.66344 -2.27932 0.777172 1.29335 -0.694105 -1.72985 0.213228 -2.01703 1.49772 0.698495 0.402362 2.64366 -0.994079 -0.466298 0.267035 0.215968 0.303854 0.342091 -1.03314 0.659821 -0.620832 -0.186727 1.1797 -0.224377 -1.46708 0.225031 1.96017 -0.586271 -1.01461 0.212322 0.0516946 0.195027 0.697531 0.41653 0.814826 -0.737904 -1.51427 -0.296451 1.12283 -1.34669 0.734329 2.09978 0.691011 0.310466 0.387351 -1.53575 1.41536 -0.3844 -0.831937 1.1976 -0.424563 -0.706734 0.200791 0.755682 0.206616 -1.23577 -0.210158 -0.577611 -0.245294 -0.27432 0.334736 -0.605451 -1.93516 1.05848 0.224784 -0.542442 0.560322 0.945931 0.283514 0.671442 -0.635593 -0.706816 1.27993 -0.835013 0.405576 0.344767 -0.949012 1.19956 -0.624106 0.96266 -1.05473 -0.31893 -0.969194 -0.993944 -0.252701 -0.657335 0.0403501 0.574948 -0.297992 0.568186 0.492516 0.327874 -0.552004 -0.909022 -0.952232 -0.545122 -0.588521 0.342439 0.385522 -0.829234 -0.802405 0.338219 0.924853 -0.800094 -1.4103 0.387701 -0.599235 1.87043 0.288554 -0.883213 -0.509025 0.931797 0.462036</Parameters>
    </MultilayerPerceptron>
    <UnscalingLayer>
        <UnscalingNeuronsNumber>3</UnscalingNeuronsNumber>
        <Statistics Index="1">
            <Minimum>1</Minimum>
            <Maximum>200</Maximum>
            <Mean>100.5</Mean>
            <StandardDeviation>57.8792</StandardDeviation>
        </Statistics>
        <Statistics Index="2">
            <Minimum>1</Minimum>
            <Maximum>200</Maximum>
            <Mean>100.5</Mean>
            <StandardDeviation>57.8792</StandardDeviation>
        </Statistics>
        <Statistics Index="3">
            <Minimum>1</Minimum>
            <Maximum>200</Maximum>
            <Mean>100.5</Mean>
            <StandardDeviation>57.8792</StandardDeviation>
        </Statistics>
        <UnscalingMethod>MinimumMaximum</UnscalingMethod>
    </UnscalingLayer>
    <Outputs>
        <OutputsNumber>3</OutputsNumber>
        <Item Index="1">
            <Name>R</Name>
            <Units></Units>
            <Description></Description>
        </Item>
        <Item Index="2">
            <Name>G</Name>
            <Units></Units>
            <Description></Description>
        </Item>
        <Item Index="3">
            <Name>B</Name>
            <Units></Units>
            <Description></Description>
        </Item>
    </Outputs>
</NeuralNetwork>
